-0.04519 -0.15219 0.03015 -0.08942 0.01288 -0.01933 0.01181 0.09777 0.04891 -0.16622 0.12777 0.11109 0.16574 0.12084 0.01019 -0.10026 0.08765 0.10147 -0.05150 -0.09013 -0.05091 0.15826 -0.09115 -0.10039 0.04551 -0.00552 0.03433 -0.02808 0.12230 0.05594 0.13697 0.06977 0.07511 0.13830 0.01214 0.07753 0.36250|||||||||||||||||||||||||||||||||||||||||||||||||||||||||||||||||-0.13418 0.15253 -0.02798 0.14637 -0.11022 0.13314 0.13998 0.00369 -0.00137 -0.09683 0.17095 0.16164 -0.15085 0.06458 0.03875 0.04089 -0.01263 -0.06338 -0.12998 0.06285 -0.07473 0.06835 0.07712 0.09979 -0.05056 0.00038 -0.03851 0.05824 0.11102 -0.14617 0.14047 0.01619 -0.02226 -0.04146 -0.09432 0.09144 0.03344|||||||||||||||||||||||||||||||||||||||||||||||||||||||||||||||||0.10618 0.05109 0.03909 0.08435 0.02171 0.13391 -0.11883 0.15756 -0.11912 0.13694 0.06630 -0.15206 -0.05476 -0.03655 -0.04122 -0.15120 -0.13121 0.00274 0.10718 0.03314 0.03824 -0.14348 0.07574 -0.03413 -0.15257 -0.05206 0.12290 0.07675 0.03592 -0.15804 0.10226 -0.16796 0.01021 0.06338 0.13253 -0.03444 0.59329|||||||||||||||||||||||||||||||||||||||||||||||||||||||||||||||||0.14484 0.06407 -0.07420 -0.08210 0.01352 -0.10357 0.15154 0.06408 0.15259 -0.07920 0.14380 -0.03123 0.15525 0.02022 0.03797 0.05950 0.07711 -0.10860 0.16296 0.09427 -0.14300 0.13428 0.11586 -0.11077 0.16389 -0.02840 0.07083 0.13469 -0.03533 0.01668 -0.13016 0.06082 -0.02277 -0.12809 -0.12446 0.07121 0.22805|||||||||||||||||||||||||||||||||||||||||||||||||||||||||||||||||0.02206 -0.07057 -0.16096 0.14164 -0.04081 0.02242 -0.02537 -0.07088 -0.09064 0.16236 0.12542 -0.01524 -0.14827 -0.02893 -0.05888 0.04704 -0.06421 -0.05090 -0.07969 -0.08093 -0.07091 -0.11234 -0.12646 0.10978 0.03801 0.06530 0.05591 -0.15508 0.12565 -0.05561 0.15791 0.05105 -0.06069 0.03839 0.09688 -0.07560 0.53851|||||||||||||||||||||||||||||||||||||||||||||||||||||||||||||||||-0.12314 0.03286 -0.00666 -0.01392 0.03501 -0.01206 0.13851 0.06629 -0.12601 0.00197 0.08304 0.01266 0.13013 -0.02206 0.16889 -0.03894 -0.09760 0.09331 0.07126 0.12160 0.15868 -0.04508 -0.13344 -0.13124 -0.01758 0.12225 0.10305 0.10228 -0.03525 -0.04218 0.01482 -0.05767 -0.08719 0.09132 0.12540 0.09371 0.44953|||||||||||||||||||||||||||||||||||||||||||||||||||||||||||||||||-0.01863 0.12143 -0.07223 0.13192 0.15323 -0.05420 -0.13413 0.07631 0.07442 -0.07285 0.13345 0.09192 0.12049 -0.11676 0.11169 0.00683 -0.10237 -0.03698 0.06146 0.08106 -0.05804 0.05421 0.01787 0.10846 -0.15180 -0.14959 -0.02341 -0.07976 0.02386 -0.02801 -0.01354 -0.10987 0.05856 0.06555 -0.00665 -0.01695 0.53510|||||||||||||||||||||||||||||||||||||||||||||||||||||||||||||||||0.13599 0.02984 -0.14781 -0.02520 -0.10569 0.07991 -0.03175 0.07480 0.01011 -0.11078 -0.08476 0.03302 -0.05047 0.00772 0.13711 0.16654 -0.09803 -0.01813 -0.06930 -0.08050 -0.11131 0.02540 -0.02926 0.00432 -0.02014 -0.00325 0.05993 -0.06638 -0.13054 -0.10654 -0.04013 -0.11423 0.04075 0.05604 -0.07418 0.03314 0.79492|||||||||||||||||||||||||||||||||||||||||||||||||||||||||||||||||-0.15538 -0.11532 0.10982 -0.06477 -0.01515 -0.12264 0.00828 0.10296 0.12777 0.12729 0.12222 -0.13935 0.16824 0.15513 -0.00035 -0.03926 0.03606 -0.06454 -0.14098 0.09129 0.15451 -0.03163 -0.11296 0.02740 0.06716 -0.09009 0.13055 -0.09769 0.06920 -0.12157 -0.14227 0.01857 0.05603 -0.15035 -0.11955 -0.12656 0.64650|||||||||||||||||||||||||||||||||||||||||||||||||||||||||||||||||-0.01703 -0.06349 0.08109 0.09584 0.15558 -0.13051 -0.01916 0.05859 0.00777 -0.07118 -0.11275 0.00808 -0.00258 -0.12363 -0.07645 -0.02977 0.15884 -0.11351 0.01597 0.00306 0.00139 0.10053 -0.10697 -0.05605 0.05676 -0.09461 -0.14718 -0.13997 0.13395 0.08499 0.04332 -0.05926 -0.01367 -0.09090 -0.09243 -0.14165 0.00286|||||||||||||||||||||||||||||||||||||||||||||||||||||||||||||||||0.10320 0.14219 -0.00664 0.02000 -0.02880 0.16541 -0.15485 -0.10427 0.08038 -0.13747 -0.15326 -0.04470 -0.01201 0.11195 -0.00528 0.02703 -0.11616 -0.03504 0.00466 -0.11891 0.11715 0.01000 0.02578 0.12982 -0.06856 0.00182 -0.10174 0.15100 0.12261 -0.10847 -0.00472 -0.06317 -0.03242 -0.10111 -0.04108 0.03526 0.88417|||||||||||||||||||||||||||||||||||||||||||||||||||||||||||||||||0.07248 0.07296 -0.15671 0.14814 0.05584 0.08810 0.11328 0.00669 -0.05126 0.00456 -0.00277 -0.16949 -0.01782 -0.12557 -0.12070 0.00007 -0.04943 -0.14967 0.02831 -0.00117 0.01732 -0.07389 -0.10887 0.10385 -0.07628 -0.04881 -0.11600 0.10139 -0.02870 -0.08778 0.00574 0.13715 -0.01193 0.15023 -0.14191 -0.11439 0.83842|||||||||||||||||||||||||||||||||||||||||||||||||||||||||||||||||0.15251 -0.02653 -0.15632 -0.03995 -0.10381 -0.00378 -0.06210 0.08577 0.14965 0.12246 0.07843 -0.15649 0.11745 -0.11323 -0.11711 0.02880 0.08186 -0.12686 -0.14863 0.08199 -0.08197 -0.15637 0.10978 0.00454 0.10735 -0.01290 -0.00187 -0.16343 -0.05261 0.15462 0.06248 0.05361 -0.12866 -0.09276 0.08225 -0.05450 1.00514|||||||||||||||||||||||||||||||||||||||||||||||||||||||||||||||||-0.10768 -0.01298 -0.03992 0.14853 0.01081 -0.14580 0.07706 0.00352 -0.13084 -0.13030 0.14830 0.13925 -0.03336 -0.13273 -0.03156 -0.01088 0.02981 -0.13993 -0.02499 -0.08703 -0.07965 0.08959 0.03664 0.11603 -0.05359 0.11231 -0.03557 -0.15426 -0.04591 0.06443 -0.05938 -0.04556 -0.15709 -0.15913 0.04928 0.11566 0.86128|||||||||||||||||||||||||||||||||||||||||||||||||||||||||||||||||0.07665 0.16334 -0.04139 0.08850 -0.00829 0.08897 -0.13651 0.03344 -0.11125 0.08042 -0.03783 0.00375 0.04662 0.12883 -0.06830 -0.13337 0.12162 -0.15203 0.15888 0.09946 -0.02155 -0.05124 -0.07035 0.06119 -0.05485 0.08535 -0.12121 -0.04773 0.04577 -0.11247 0.10948 0.09534 0.13857 0.05048 -0.14076 -0.13968 0.53147|||||||||||||||||||||||||||||||||||||||||||||||||||||||||||||||||-0.02158 0.01708 0.15088 -0.11371 0.13522 0.02143 0.12278 0.01110 -0.03191 -0.15399 0.07755 0.05914 -0.05052 0.02672 -0.09241 0.05889 -0.04172 -0.00935 -0.16548 0.14087 -0.14636 0.07006 0.06007 -0.03570 -0.05315 0.01252 0.05155 -0.15970 0.11496 0.10807 0.04971 -0.12971 -0.01026 -0.08272 -0.04399 -0.10240 0.19944|||||||||||||||||||||||||||||||||||||||||||||||||||||||||||||||||0.05952 -0.03587 0.02444 0.07770 0.15435 0.11337 0.05556 -0.02430 0.06829 -0.01749 0.06153 -0.07847 0.11444 -0.06894 -0.12351 0.13645 0.10546 -0.08320 -0.02180 -0.05555 -0.14643 0.07089 0.10153 0.07107 0.12987 -0.01888 0.15454 0.05249 -0.14083 0.14209 -0.16148 0.14955 0.13382 0.09725 -0.16525 -0.13014 0.76150|||||||||||||||||||||||||||||||||||||||||||||||||||||||||||||||||0.05036 0.06968 0.09799 -0.11352 0.13733 -0.02293 0.15932 -0.15881 -0.01597 0.15116 -0.09171 -0.12310 0.14914 -0.10105 -0.11024 0.10315 -0.10514 -0.01552 -0.10576 0.08481 0.00802 0.09773 0.07754 0.11807 -0.10883 0.16034 0.04129 0.01197 0.00692 -0.09110 -0.07557 0.09860 0.11343 -0.10764 0.05826 0.05905 0.80523|||||||||||||||||||||||||||||||||||||||||||||||||||||||||||||||||-0.06836 -0.09050 -0.11553 -0.07794 0.00415 -0.05602 0.00839 -0.12867 0.14628 -0.11734 0.13987 -0.09772 0.07657 -0.15769 -0.06489 -0.04932 -0.07980 0.09183 0.11460 0.11391 0.12011 0.03651 -0.00706 -0.08830 -0.11930 0.08291 0.12417 -0.10226 -0.01771 0.13168 0.03655 0.11257 -0.08298 -0.16085 0.13019 0.16053 0.34810|||||||||||||||||||||||||||||||||||||||||||||||||||||||||||||||||0.06616 -0.12084 -0.02198 -0.11980 0.00337 0.16263 -0.17046 -0.04989 -0.11905 -0.15183 -0.13998 -0.06229 -0.12845 0.00515 0.13777 0.05277 0.08211 0.09388 -0.13834 -0.00680 0.14949 -0.11376 -0.03336 0.00914 0.04542 -0.05469 0.06099 0.09157 0.04620 0.16175 -0.09196 -0.02599 0.14349 -0.06864 -0.06880 0.14837 0.22688|||||||||||||||||||||||||||||||||||||||||||||||||||||||||||||||||0.05236 -0.07217 0.12945 -0.10740 0.11651 0.07879 -0.11702 0.06998 0.10156 0.09024 0.11700 0.14797 -0.06035 -0.09065 -0.11089 -0.00516 -0.02546 0.14555 0.10331 -0.04664 -0.09324 -0.09936 0.13278 0.02100 -0.06464 0.05412 -0.01608 0.13558 -0.11065 -0.03938 -0.11736 -0.02332 0.09506 -0.09935 0.10816 0.09352 0.33840|||||||||||||||||||||||||||||||||||||||||||||||||||||||||||||||||-0.01390 0.09369 -0.08591 -0.01061 0.06664 -0.00832 0.07523 -0.06635 -0.11919 0.00521 0.14691 -0.14225 0.07268 -0.00516 0.15321 -0.16368 -0.11069 0.15148 0.12745 -0.05914 0.00741 0.08583 -0.03050 -0.14440 -0.08421 -0.05665 -0.01581 -0.07590 -0.15398 -0.03039 -0.10087 -0.15435 -0.11175 0.07056 0.02019 -0.05840 0.97085|||||||||||||||||||||||||||||||||||||||||||||||||||||||||||||||||-0.08956 -0.07949 -0.05374 -0.08719 -0.16290 0.14406 0.06787 0.16362 -0.11508 0.06841 0.01563 -0.14035 -0.11681 0.08225 0.15663 -0.00389 -0.10296 -0.01438 0.05247 -0.00026 0.05276 0.02808 0.14844 -0.04234 -0.09592 -0.01287 0.14834 0.11981 -0.00934 0.16854 -0.05123 0.07212 -0.04137 -0.06935 -0.01126 -0.14454 0.22613|||||||||||||||||||||||||||||||||||||||||||||||||||||||||||||||||0.10744 -0.13132 -0.05994 -0.14073 0.01886 0.13760 -0.02175 0.07436 0.06017 0.11307 -0.05521 0.04123 -0.11010 0.06617 -0.14094 -0.07430 -0.08802 0.02439 -0.16202 0.01119 0.13984 -0.14751 0.09158 0.14751 -0.13485 0.04226 0.05391 -0.14152 -0.12169 0.03378 0.04379 -0.03479 -0.14767 -0.12423 -0.11781 0.01983 0.19992|||||||||||||||||||||||||||||||||||||||||||||||||||||||||||||||||-0.07886 0.14717 -0.03331 -0.03978 -0.06033 -0.04415 -0.05155 0.05361 0.02595 0.12526 -0.13814 0.00778 0.13289 0.06970 -0.15875 -0.06828 -0.11660 0.11950 -0.01632 -0.02669 -0.16011 -0.10205 0.14650 0.16383 0.05310 -0.01268 -0.05624 -0.06628 0.00969 0.16641 -0.07079 0.01209 -0.12184 -0.09404 -0.09755 0.07207 0.63661
