0.04675 0.04863 -0.00922 0.04586 -0.03852 -0.05474 0.06989 -0.09605 -0.02428 -0.11310 -0.00585 0.03528 -0.10440 0.05293 -0.04953 -0.04679 0.00382 -0.04232 0.09966 0.01577 -0.02940 0.03895 0.03483 0.08257 0.08004 0.04289 -0.08069 0.01479 0.01929 0.09753 -0.01850 -0.06541 0.10424 0.03677 0.06806 -0.04229 0.03132 0.10035 0.05727 0.11420 -0.00929 0.02340 -0.09835 0.09522 -0.07247 0.10754 0.05543 0.04753 -0.03856 -0.06906 -0.02812 -0.09206 0.09129 0.10113 -0.07187 -0.00569 0.06224 0.07186 0.09566 -0.11408 0.03180 0.08739 -0.03546 -0.02063 0.01404 0.08861 0.01578 -0.08177 0.00754 -0.03921 0.01563 0.07415 0.69835|||||||||||||||||||||||||||||||||||||||||||||||||||||||||||||||||0.11409 0.05087 -0.07396 -0.05519 0.06551 0.05155 0.03659 -0.03212 0.09850 -0.03471 0.03699 0.01552 -0.05212 0.01197 0.08791 0.00702 -0.09512 0.09730 0.05979 -0.00477 -0.02505 -0.02137 -0.01928 0.03442 0.02716 -0.03137 0.05133 0.10057 -0.07583 -0.11398 -0.10691 0.11141 -0.04971 -0.11127 -0.01120 -0.04208 0.03539 0.03402 0.02425 -0.06263 0.04914 0.11620 -0.05602 -0.08129 -0.00542 0.10376 0.11650 0.09748 -0.05640 -0.07070 -0.01525 0.02482 -0.08124 0.01176 0.06321 -0.11517 -0.01727 -0.08054 0.07386 -0.01025 -0.10169 -0.11528 0.06148 0.04328 0.03401 0.03864 -0.04631 -0.08868 -0.10047 0.10200 0.00837 -0.07475 0.70632|||||||||||||||||||||||||||||||||||||||||||||||||||||||||||||||||0.03586 0.01264 -0.10737 0.06798 -0.05799 0.08681 0.08906 0.02448 0.10375 0.01402 -0.09114 0.05228 0.10556 -0.10948 -0.06792 0.02486 -0.02742 0.06802 -0.11362 0.00622 0.01663 0.04010 0.04685 0.00604 -0.03750 0.04920 -0.09176 0.04445 0.04389 -0.08817 -0.10943 0.03697 -0.05660 0.08858 -0.00189 -0.01566 0.02404 0.05484 0.07060 0.07572 0.06473 -0.11201 -0.01448 0.00994 -0.01406 -0.09648 0.11428 -0.08988 -0.04171 0.02234 -0.11477 -0.02707 -0.05974 -0.02131 -0.08317 0.11674 -0.04861 -0.07811 -0.04798 0.07553 -0.05508 -0.08363 0.07173 -0.08982 0.06714 -0.09698 -0.05109 -0.02223 0.02243 -0.08930 0.02843 -0.05539 0.46089|||||||||||||||||||||||||||||||||||||||||||||||||||||||||||||||||-0.00812 -0.01811 0.00314 -0.07415 -0.01800 -0.04969 -0.02864 -0.03640 -0.02004 0.10419 -0.02542 0.08622 0.08476 0.09204 0.08309 -0.08463 -0.09641 -0.02275 -0.08242 -0.07158 -0.08545 0.04204 -0.07057 0.00227 0.01397 -0.11422 -0.11105 -0.05776 0.03938 0.04613 0.05662 0.11254 -0.07547 -0.10111 0.11620 -0.02811 0.01178 -0.05736 -0.08419 -0.08183 -0.09955 0.09262 0.04010 -0.10135 -0.11603 -0.08816 0.09860 -0.05298 0.00690 -0.05472 -0.02903 -0.03766 -0.01082 0.10016 0.00584 -0.00281 -0.06049 -0.01360 -0.07250 -0.10774 0.05638 -0.08913 -0.07005 -0.05606 0.08589 -0.00019 -0.07173 0.06826 0.09022 0.05340 -0.06538 0.07442 0.69458|||||||||||||||||||||||||||||||||||||||||||||||||||||||||||||||||0.08820 0.09015 0.07530 0.07006 -0.06498 -0.05287 0.11428 -0.10107 0.06412 0.02041 -0.10311 0.02927 0.10760 0.02790 0.06474 0.09844 -0.06915 -0.00146 -0.07423 0.06137 -0.02973 -0.01974 0.10140 -0.05611 -0.11343 0.06780 -0.05880 -0.06824 0.09467 0.03362 -0.04941 -0.00988 -0.00099 0.06842 -0.05240 0.07776 0.11041 0.09579 0.05030 -0.04108 -0.06231 0.04681 0.08434 0.11286 0.05845 0.06754 -0.03961 0.02415 -0.00461 -0.02168 0.00921 0.04062 0.07658 0.01884 0.00598 -0.01977 -0.02671 -0.11097 0.00461 -0.02489 -0.04543 -0.09936 -0.03353 -0.01265 -0.03514 -0.03207 0.06278 0.11259 0.08730 0.11505 0.02020 0.02456 0.33658|||||||||||||||||||||||||||||||||||||||||||||||||||||||||||||||||-0.11470 0.06530 -0.06569 0.04750 0.02153 -0.03529 0.05576 0.02419 -0.02334 -0.06568 0.04499 0.00171 -0.03880 -0.06790 -0.09421 -0.10619 -0.01430 0.09752 -0.10288 0.11567 -0.10936 0.05311 0.05658 0.03099 0.04366 -0.09882 0.06070 -0.10690 -0.07184 0.11353 0.08624 0.08904 -0.11619 -0.04296 0.11348 -0.04298 -0.06021 -0.04397 -0.04341 -0.03837 0.02118 0.02494 -0.03987 -0.04326 -0.10786 0.03122 0.04862 0.05173 0.04212 0.04375 -0.06596 0.07635 0.06904 0.02452 0.05616 -0.08589 0.06364 0.09513 0.05188 -0.05334 -0.09293 -0.01812 -0.05024 -0.10282 0.03099 -0.09780 -0.07627 -0.11339 -0.07789 -0.00757 -0.03696 0.05183 0.26776|||||||||||||||||||||||||||||||||||||||||||||||||||||||||||||||||-0.06245 -0.02877 0.06379 -0.06786 0.10192 -0.08579 0.09267 0.01170 -0.04460 0.08343 -0.04093 0.09935 0.08861 -0.01349 0.02144 0.10448 0.04390 0.09343 -0.08456 -0.06467 -0.08393 0.08201 0.11643 0.08721 -0.03046 0.10676 0.01081 0.07785 0.04715 0.01656 0.07690 -0.08744 -0.02950 -0.03154 -0.00057 0.08754 0.05376 -0.04820 0.01052 0.07701 -0.06662 0.07630 -0.08663 0.08958 -0.05204 -0.01440 -0.10140 0.06163 0.05051 -0.06518 -0.00635 -0.03789 0.06313 0.06433 0.09277 -0.09286 -0.11712 -0.02252 0.05057 -0.10347 -0.02170 0.02302 -0.11667 -0.00376 0.03220 0.00062 0.06812 0.11688 -0.07931 -0.08201 0.08804 0.10012 0.79650|||||||||||||||||||||||||||||||||||||||||||||||||||||||||||||||||-0.07494 0.09846 0.05953 0.07181 -0.09897 -0.06575 0.11229 -0.05545 0.10603 -0.08452 -0.09057 0.03276 -0.07959 -0.06397 -0.08862 0.09211 0.05411 0.11665 -0.09843 0.05473 -0.08674 -0.02532 0.10682 -0.04889 0.03338 -0.06724 -0.08780 -0.00599 -0.03328 0.08220 0.06720 -0.01189 -0.05335 -0.03968 -0.06518 -0.08748 0.02607 0.03889 0.11361 -0.09139 0.04122 0.05176 0.11282 0.04142 -0.00809 0.02650 0.00727 -0.03676 0.08509 0.01751 0.08683 0.04454 0.06912 -0.11201 -0.08493 0.05481 0.03397 -0.01864 0.01914 0.10636 0.02603 -0.04445 -0.05121 0.07956 -0.00789 -0.02448 0.03780 -0.00316 0.06198 0.00273 -0.03300 -0.02698 0.09251|||||||||||||||||||||||||||||||||||||||||||||||||||||||||||||||||-0.08629 0.00191 0.08575 -0.01343 0.02341 0.10098 -0.08182 0.09643 0.01665 0.04869 0.09272 -0.02179 -0.06169 -0.00620 -0.07853 -0.01507 0.08606 0.07715 -0.00743 -0.08862 0.09476 -0.00697 0.05947 -0.04965 0.02020 -0.00694 0.07352 -0.11252 -0.11476 0.02413 -0.07279 0.10651 -0.11699 -0.07971 0.06967 -0.02694 0.06753 0.03912 0.01548 -0.06882 0.01316 0.05984 -0.00406 -0.00320 -0.02136 0.07361 -0.09776 -0.07608 0.07317 -0.07311 0.04117 0.05665 -0.00036 0.06072 -0.07204 -0.07495 0.00104 0.04761 0.03476 -0.06749 -0.08439 -0.00309 -0.03690 -0.03239 -0.08233 -0.08497 0.10012 0.05936 -0.10269 -0.03429 -0.03516 0.04429 0.39697|||||||||||||||||||||||||||||||||||||||||||||||||||||||||||||||||-0.11387 -0.05217 -0.01194 -0.07974 0.11124 0.11660 -0.09546 -0.02270 0.10987 -0.09194 -0.02942 0.07058 -0.00933 0.04814 0.02557 0.03325 -0.11523 0.03678 -0.00921 -0.10969 0.02396 -0.06808 0.08420 0.08672 0.05586 -0.06973 -0.10911 -0.05948 0.08022 -0.09651 -0.09847 -0.02198 -0.06513 0.01526 -0.03178 0.04691 -0.04781 -0.00233 0.01734 0.08564 0.04499 0.11582 0.05957 -0.09255 0.09081 -0.08668 0.00127 -0.05120 -0.02297 0.05200 0.05062 0.07465 0.00334 -0.05651 0.02491 0.02596 -0.10490 0.09066 0.06990 -0.05353 0.04656 0.02472 0.07781 -0.09362 -0.01907 -0.02740 -0.10684 -0.03462 0.07519 -0.00561 -0.08587 0.05381 0.02018|||||||||||||||||||||||||||||||||||||||||||||||||||||||||||||||||-0.05810 0.05664 -0.04246 0.06716 0.04644 0.02285 -0.05604 -0.08795 -0.08269 -0.08192 -0.01152 0.01590 -0.02521 -0.00534 0.01806 -0.08935 -0.08352 0.11347 0.03590 0.10467 0.04033 -0.09491 0.05365 0.10903 0.05607 -0.11492 0.06776 -0.09420 -0.01527 0.09627 -0.11301 -0.05287 0.01684 0.01469 -0.03168 0.10529 0.08656 -0.08760 -0.10996 0.10231 0.05633 0.07428 0.02843 0.05975 0.10223 0.05487 -0.02942 -0.01025 0.03439 -0.10977 0.01547 0.05154 -0.10819 -0.06428 0.04897 0.11263 -0.07805 0.06070 -0.01901 0.05900 0.05414 -0.08629 -0.09584 -0.06714 -0.02039 0.03205 0.10533 0.03289 0.01028 0.08105 0.05792 0.04458 0.47520|||||||||||||||||||||||||||||||||||||||||||||||||||||||||||||||||-0.03877 0.02782 -0.02865 0.10665 -0.10456 0.00009 -0.05779 0.06129 0.08098 -0.11079 0.04266 0.04359 -0.07573 0.09113 -0.07488 -0.03387 -0.08277 0.05412 0.11781 -0.06418 0.01997 -0.07316 -0.07347 -0.10610 -0.00480 -0.11724 -0.02945 0.11344 0.04158 0.08834 -0.07030 0.09094 -0.07289 0.00841 -0.10897 -0.03393 -0.10641 0.07569 0.06966 0.07367 0.02562 0.04472 0.05904 0.00047 0.01160 0.09516 -0.11153 -0.03214 -0.08100 0.10471 -0.05551 0.01469 -0.07838 0.08743 -0.00297 -0.01186 -0.01714 0.08079 0.09777 0.04721 -0.01136 -0.01563 0.10949 -0.11055 -0.01856 0.11579 0.10240 0.04165 -0.03832 -0.05219 -0.04020 0.06722 0.64966|||||||||||||||||||||||||||||||||||||||||||||||||||||||||||||||||0.01727 -0.10475 0.10918 -0.11258 -0.11262 -0.04305 0.01472 -0.11079 0.01775 0.00761 -0.10218 0.11222 -0.01815 0.06318 0.09931 -0.08020 -0.09088 -0.10691 -0.01847 -0.03021 -0.00384 0.00400 -0.00398 0.07625 -0.09041 0.04594 0.00915 0.00632 0.08994 0.04937 0.07099 -0.08806 -0.03089 0.05473 -0.00098 -0.07275 -0.01226 0.05170 0.00668 -0.05479 0.05382 0.08682 -0.05216 -0.09900 0.10606 -0.01236 0.01128 0.02304 0.08834 -0.06139 -0.08535 0.07321 -0.02428 0.02828 0.11408 -0.01251 0.04399 -0.06340 0.00625 0.07798 0.08707 0.08087 0.00038 -0.04531 0.07164 -0.07115 0.04653 -0.03701 0.07497 -0.00618 0.02637 0.00393 0.05708|||||||||||||||||||||||||||||||||||||||||||||||||||||||||||||||||-0.07740 -0.07494 -0.06271 0.04080 -0.08957 0.08560 0.08003 0.03996 -0.11590 -0.04530 -0.11778 -0.10589 0.08016 0.10798 0.02941 -0.10343 0.10094 -0.04767 -0.00143 -0.09311 0.09459 -0.10499 0.03669 -0.06796 0.04637 -0.09508 0.08156 -0.05258 -0.04064 0.04354 0.06087 -0.06947 -0.06334 0.07780 0.07314 -0.03624 0.06597 -0.11176 0.07593 0.02957 -0.04649 -0.06393 -0.03844 0.06233 0.10413 -0.01248 0.03586 0.02175 0.00032 0.02376 -0.00072 0.00970 -0.08339 0.10068 0.06091 0.10992 0.10626 -0.02266 0.08551 0.06452 -0.09823 0.07393 0.08188 -0.02762 -0.11666 0.06400 0.05040 -0.10002 -0.11400 -0.07596 -0.02144 -0.03866 0.72454|||||||||||||||||||||||||||||||||||||||||||||||||||||||||||||||||0.06986 0.09266 0.02546 -0.03297 0.09625 0.05385 -0.01102 0.05431 -0.08348 -0.01363 -0.02024 0.01269 0.02392 0.10479 -0.03350 0.08213 0.07661 -0.10872 0.03121 0.04814 -0.11561 0.03403 -0.06684 0.11002 -0.01594 -0.01326 -0.08098 0.01924 0.00911 0.09986 -0.08509 0.06387 -0.01061 -0.10494 -0.08791 0.02177 -0.04108 0.07398 0.02557 -0.09372 0.01858 0.07638 -0.08454 -0.02852 0.07169 -0.07000 -0.07863 -0.10883 -0.03791 -0.05419 0.09881 -0.01539 0.03278 -0.00345 -0.07142 -0.11186 -0.01458 0.01255 -0.06291 -0.04337 -0.02291 0.03286 -0.08911 -0.10761 0.08564 0.02123 -0.02063 -0.06542 -0.08475 -0.08136 0.04291 0.06758 0.28987|||||||||||||||||||||||||||||||||||||||||||||||||||||||||||||||||0.04704 -0.03245 0.06718 0.01764 -0.11660 0.05446 0.06359 -0.02192 -0.11653 0.02432 -0.03570 -0.06537 0.00492 -0.00010 0.03513 -0.02085 -0.07273 0.00872 -0.07545 -0.09352 0.04088 -0.01093 -0.01878 0.06885 -0.08851 0.06577 0.02215 -0.06380 -0.07125 -0.01524 -0.05457 0.10186 -0.05551 -0.04336 -0.09755 -0.01970 0.10949 0.04652 -0.02914 -0.11158 -0.03258 0.04622 -0.08577 -0.04725 0.10983 0.03967 0.02902 -0.10107 -0.00811 0.03146 0.03028 0.09690 0.10774 -0.05971 0.00430 0.06303 -0.09479 -0.00731 -0.00267 0.02095 0.06282 -0.10078 -0.11063 0.11290 -0.06095 0.03593 -0.09744 -0.06568 0.00792 0.11332 0.06798 -0.08951 0.30148|||||||||||||||||||||||||||||||||||||||||||||||||||||||||||||||||-0.10102 0.01094 -0.00595 0.06183 -0.00082 -0.07693 -0.05330 -0.03369 0.04271 -0.08839 0.05672 0.02565 0.03979 -0.07164 0.09465 -0.05056 -0.10026 -0.01563 -0.04011 0.05732 -0.07925 -0.02461 -0.06171 -0.06092 0.02939 0.02114 0.07655 -0.06985 -0.07737 -0.01191 0.07009 -0.09227 0.10660 0.00082 -0.07767 -0.03576 0.01835 -0.04191 0.08623 0.07362 -0.02490 -0.10489 -0.05679 -0.11234 0.09632 0.03182 0.05676 0.11782 -0.11131 -0.00073 -0.02438 -0.04009 0.07283 -0.03796 -0.04175 0.10910 0.02219 0.11109 0.02165 -0.08291 0.02257 0.10646 -0.00207 0.08694 0.05437 0.04376 -0.03541 0.03428 -0.05010 -0.05503 0.01053 -0.10023 0.51623|||||||||||||||||||||||||||||||||||||||||||||||||||||||||||||||||-0.02217 0.07847 -0.03616 0.07869 0.02041 0.09410 0.09868 0.03814 0.11680 0.08331 0.02635 -0.11231 0.08337 0.08148 0.02765 -0.09819 0.06430 -0.00358 0.11750 0.10192 -0.10966 0.02341 -0.05476 -0.04252 0.03514 -0.01741 0.04166 -0.10023 -0.10644 0.08051 -0.09871 -0.03159 0.00032 0.01016 0.05142 0.06730 -0.00348 -0.00538 -0.03640 0.00253 -0.07106 -0.09262 -0.08255 0.03850 0.09826 0.09237 0.02384 -0.02096 -0.10923 0.09985 0.11047 -0.06773 -0.06644 0.04787 0.11633 -0.10843 -0.03970 0.07154 -0.09058 0.07097 -0.02027 -0.01379 -0.04331 -0.00358 0.03652 0.00112 0.08809 -0.07298 0.10107 0.05314 -0.00418 -0.03259 0.32044|||||||||||||||||||||||||||||||||||||||||||||||||||||||||||||||||-0.01220 -0.10021 0.10930 0.07592 -0.02800 0.01523 -0.04100 0.02572 -0.09556 0.08798 0.10820 -0.05955 -0.01707 0.03294 -0.10613 -0.11395 0.09149 -0.06755 0.09706 -0.04835 0.01140 0.02831 -0.11114 0.07938 0.03743 -0.10020 0.04705 -0.09551 0.00251 -0.10923 -0.09782 -0.01710 0.07756 -0.09536 -0.05808 0.11096 -0.05291 -0.03446 0.11555 -0.04360 0.09790 0.09483 0.09176 -0.08977 0.09265 0.04622 -0.01029 0.07499 0.08153 0.07043 -0.00218 0.07873 -0.06723 -0.01280 -0.05262 -0.11295 -0.05992 0.08681 0.01615 -0.02111 -0.04971 0.11132 0.02802 0.06589 0.10793 -0.10448 -0.03346 -0.04516 0.05813 -0.03450 0.01419 -0.10135 0.92282|||||||||||||||||||||||||||||||||||||||||||||||||||||||||||||||||-0.03124 -0.09123 0.07168 0.05053 -0.02231 0.01951 0.01415 0.03254 0.07757 0.07810 0.00619 -0.09423 0.05833 -0.09128 0.07273 -0.10618 -0.08544 -0.07145 0.02657 0.11009 0.02526 0.03220 0.06006 0.08140 0.00821 0.06514 -0.04360 -0.07573 -0.04932 0.08805 -0.05701 -0.06885 0.11071 0.03757 -0.04532 -0.09085 0.04672 -0.07919 -0.06783 -0.07159 0.05439 -0.03026 0.07017 -0.04195 -0.03179 0.11368 -0.11201 -0.09132 0.00516 0.01925 0.11629 0.01601 -0.10304 0.04399 0.07351 -0.08023 -0.08409 -0.08374 -0.02200 -0.04932 0.09064 -0.02450 -0.01748 0.03131 -0.09415 -0.08140 -0.04655 -0.01757 0.05836 0.07690 -0.11202 -0.11197 0.56692|||||||||||||||||||||||||||||||||||||||||||||||||||||||||||||||||0.04125 -0.11053 0.11165 -0.10860 0.01738 -0.10179 -0.10996 -0.02940 0.03137 -0.07771 0.06413 -0.11785 0.11527 0.08534 0.06648 -0.03845 0.01387 -0.08177 0.07355 -0.05356 -0.01970 -0.02688 -0.07742 0.04851 0.04635 0.06284 -0.03575 -0.04104 -0.02155 0.10762 -0.09921 -0.08329 0.10573 0.07615 0.06973 -0.10304 0.04657 0.10602 -0.02886 0.07222 0.02024 -0.05808 -0.00502 0.02635 0.11305 -0.10846 -0.00912 -0.02481 -0.00990 0.00846 -0.09967 -0.01845 -0.01940 -0.10179 0.10509 0.00669 -0.09841 -0.08235 -0.06048 0.00257 -0.03051 -0.09814 0.11731 0.07701 0.01990 0.00436 0.00502 -0.02893 0.09014 0.05709 0.08852 -0.07917 0.37526|||||||||||||||||||||||||||||||||||||||||||||||||||||||||||||||||0.04598 -0.05276 -0.07174 0.11660 0.11038 -0.09348 0.06128 -0.07819 0.04340 -0.07125 -0.09841 0.09374 0.02028 0.11678 -0.08275 -0.08913 -0.06160 -0.05248 0.00980 -0.04235 -0.10197 0.03190 0.10155 -0.01844 0.01379 -0.07011 -0.01976 0.11430 -0.10098 -0.03350 0.03176 -0.04956 0.08291 0.08943 -0.03789 0.00471 -0.00422 0.10616 -0.02841 0.10857 0.09710 0.10985 0.11062 -0.10601 -0.11402 -0.03244 0.09331 -0.07951 0.10843 -0.04272 0.10868 0.09369 0.04022 0.00417 0.00692 -0.02231 -0.01782 -0.04333 0.03664 -0.01219 0.02860 0.07297 0.06808 0.05269 -0.05050 -0.09041 0.10097 0.00844 0.11295 0.06754 -0.06459 -0.09994 0.66526|||||||||||||||||||||||||||||||||||||||||||||||||||||||||||||||||-0.04306 -0.06533 -0.03318 -0.07780 0.10954 -0.02047 0.09249 -0.08176 0.06556 -0.09429 -0.04018 0.02906 0.05576 0.07664 0.00021 -0.08763 0.02208 -0.06533 0.02160 0.10519 0.11106 0.02189 0.05530 0.07918 0.03506 0.05810 0.04502 0.08164 -0.02413 -0.00407 -0.05415 0.07233 0.00957 0.08512 0.01602 -0.10669 0.06626 0.04813 0.09533 -0.04804 0.05245 -0.01589 0.08406 0.04126 0.07977 -0.07167 0.11524 -0.01183 -0.00762 -0.07499 0.08127 -0.08654 -0.02618 0.05733 0.07207 0.00247 0.04295 -0.00045 0.02403 0.09838 0.03112 -0.07349 -0.05924 -0.00426 -0.02888 0.09355 0.06284 -0.10335 0.11472 -0.04597 -0.08502 -0.08395 0.64776|||||||||||||||||||||||||||||||||||||||||||||||||||||||||||||||||0.06014 -0.02127 -0.09393 0.07974 -0.06978 0.11582 -0.11074 -0.08526 -0.10270 -0.07238 -0.06024 -0.00465 0.08266 -0.09851 0.01371 -0.10403 -0.00385 0.04032 -0.05169 0.05175 0.05126 0.02346 -0.08087 0.01855 0.04182 -0.01252 0.01733 -0.11782 0.11596 0.11727 -0.01894 -0.04021 -0.09013 0.03580 0.09156 0.09632 0.09253 0.05273 0.10660 0.02913 -0.11445 0.10156 0.03221 0.09722 -0.00690 0.03516 -0.04124 0.07042 -0.06612 -0.04248 -0.00283 0.11469 -0.04409 -0.08444 0.05285 -0.01750 -0.04898 -0.01188 0.10604 -0.04825 -0.09456 -0.04562 -0.07401 -0.01398 -0.07579 -0.04395 0.08099 0.10328 0.02624 0.09641 0.05506 0.04358 0.85031|||||||||||||||||||||||||||||||||||||||||||||||||||||||||||||||||-0.01142 0.10865 -0.06327 0.05442 -0.05031 -0.11428 0.08355 -0.05853 -0.08139 -0.08864 -0.10601 0.04636 0.09398 -0.09118 -0.08405 0.04170 -0.00626 0.01766 -0.10251 0.10709 -0.09136 -0.10765 0.09192 -0.04018 -0.00487 0.04141 0.04264 0.05653 -0.03238 -0.04480 0.10472 0.11027 -0.07895 -0.03204 0.10285 0.02740 -0.06056 0.02617 -0.05130 0.02717 0.11223 -0.02947 -0.06359 -0.08380 -0.07211 -0.08421 0.01195 0.08224 0.07877 -0.07828 -0.05721 0.08757 0.01094 -0.01799 0.05671 -0.00383 0.06975 0.08662 0.06942 0.04014 0.06413 -0.06047 0.11061 0.00929 -0.08302 0.04132 -0.00790 0.05993 0.09878 -0.11770 -0.08811 0.02935 0.83958|||||||||||||||||||||||||||||||||||||||||||||||||||||||||||||||||0.05674 0.09361 0.04645 -0.06108 -0.00074 -0.00794 0.02096 0.11681 0.08952 0.07387 0.10496 0.04532 0.00892 0.04734 0.11750 0.02962 -0.06687 -0.05631 -0.08256 -0.00265 0.04524 -0.05145 -0.00257 -0.03497 0.03163 -0.03935 -0.01241 0.10682 0.03439 -0.09796 -0.05657 0.07981 -0.04994 -0.01323 0.10046 0.08347 0.09095 -0.10848 -0.00348 -0.07772 0.03564 0.00788 0.00485 -0.05107 0.01214 0.04421 -0.10599 0.06980 -0.10817 -0.08639 -0.04551 0.10982 -0.03423 -0.10800 -0.03193 0.09478 0.02571 -0.05816 -0.04369 0.03364 0.01896 0.01159 0.00245 0.04939 -0.07962 -0.02078 -0.07738 -0.05786 -0.08265 -0.04456 0.01775 -0.01882 0.68197|||||||||||||||||||||||||||||||||||||||||||||||||||||||||||||||||-0.06600 -0.11401 -0.07498 0.05327 0.10063 -0.01243 0.11481 0.05470 0.05279 -0.07209 0.03265 -0.11711 0.00093 0.04969 -0.04049 0.01852 -0.05147 0.00339 0.04299 0.03095 0.09202 -0.07678 0.02238 -0.06339 -0.04397 0.00101 -0.09394 0.07672 0.06143 0.02429 0.07284 -0.04502 -0.02133 -0.09127 -0.04069 -0.03497 0.00892 0.03623 0.01742 -0.11067 0.11115 0.07078 0.10850 0.10586 0.03742 -0.03863 -0.09084 0.10162 -0.09466 0.03946 -0.08177 -0.04152 0.01186 0.11131 0.02619 0.09687 0.02517 -0.10157 -0.02389 0.01775 0.09650 -0.03927 -0.08057 0.04561 -0.06540 0.07973 -0.10776 0.01292 -0.10558 0.11600 -0.00849 -0.03523 0.15765|||||||||||||||||||||||||||||||||||||||||||||||||||||||||||||||||-0.01981 -0.11432 -0.00513 0.01569 0.02922 0.02892 0.02827 -0.02300 0.09369 -0.11023 -0.01724 -0.07417 0.04564 -0.00575 -0.08230 0.05091 0.09198 -0.00256 -0.04506 0.11385 0.02396 0.01928 0.01567 0.02854 -0.02727 0.10498 -0.00686 -0.09613 0.05000 -0.00191 -0.04450 0.04619 0.06363 -0.08940 0.09358 -0.03183 -0.05218 -0.08591 0.06133 0.09211 -0.07569 0.09653 -0.05504 0.10050 0.05462 0.01801 -0.08792 0.02392 -0.01086 -0.09489 -0.09807 0.10840 -0.05186 0.11127 -0.10859 0.05186 -0.06010 -0.03358 0.03997 -0.05680 -0.03675 -0.00367 0.03353 -0.11628 0.08332 0.00408 0.09873 0.06299 0.05748 0.01754 0.02097 -0.04979 0.56276|||||||||||||||||||||||||||||||||||||||||||||||||||||||||||||||||-0.10956 -0.06802 0.09407 0.03341 -0.04672 0.02225 0.01927 0.03873 0.04722 -0.09113 -0.01824 -0.01105 -0.08301 0.07702 -0.10519 0.06205 -0.05486 -0.02836 -0.01270 0.00268 -0.02554 -0.07407 -0.04671 0.09194 0.08823 -0.10487 -0.11142 -0.09664 -0.05312 0.00768 -0.11321 0.06827 -0.02426 0.11092 0.00879 0.07705 0.07643 -0.06776 0.03920 -0.00430 -0.09657 -0.04953 0.07375 0.07841 -0.09598 -0.01025 0.04829 0.10923 0.03370 0.08574 0.05655 0.03627 -0.04718 -0.10456 -0.05443 -0.05997 0.07409 0.10100 -0.09324 -0.00591 0.06368 -0.03082 0.11738 -0.06633 -0.11241 -0.08657 0.03305 -0.04357 0.05515 0.02291 -0.10409 -0.04624 0.58186|||||||||||||||||||||||||||||||||||||||||||||||||||||||||||||||||0.05579 0.01941 0.06398 0.05604 0.09097 -0.06000 0.02852 0.03035 -0.06111 -0.09457 0.11445 0.07064 0.06186 0.03546 0.06873 -0.07579 0.10548 -0.02249 -0.07385 0.00215 -0.00506 -0.10157 -0.01806 0.06752 0.01253 -0.06350 -0.10341 -0.03417 0.01663 -0.00956 -0.03714 -0.11450 0.02900 0.03327 0.03967 0.00003 -0.04857 0.02796 -0.01085 0.03202 0.11338 0.04710 -0.04991 -0.05632 0.09209 0.10110 0.06959 -0.06208 0.01875 -0.02130 -0.05801 -0.02853 -0.11157 0.02333 0.10875 0.05244 0.10826 -0.08714 -0.10148 -0.02691 0.10642 -0.11729 -0.07665 0.02472 -0.09009 -0.05050 0.00270 0.00033 0.06122 0.08549 -0.02752 0.04971 0.91379|||||||||||||||||||||||||||||||||||||||||||||||||||||||||||||||||0.07661 0.06529 -0.05770 -0.09438 -0.10785 0.07646 0.07662 0.07794 -0.05391 0.10158 -0.05055 -0.07431 0.00187 -0.03770 0.08000 -0.11357 0.00551 -0.02768 0.11518 0.06896 0.08459 0.02151 -0.05830 -0.05419 0.08834 0.00265 -0.11647 0.06863 0.09110 0.11098 -0.02085 0.05866 -0.08524 -0.04173 -0.09583 0.08059 -0.09639 0.02861 0.09029 0.10398 0.02520 0.04405 -0.02424 -0.08039 -0.08404 0.01969 -0.03482 0.08195 -0.02099 -0.11780 -0.00105 0.11044 0.11224 -0.02065 -0.04729 -0.09990 0.03268 0.10188 -0.11640 -0.07058 0.05500 -0.06984 0.10550 -0.04004 -0.04147 0.02325 0.06778 -0.03559 -0.07152 -0.05754 0.03910 0.04142 0.42153|||||||||||||||||||||||||||||||||||||||||||||||||||||||||||||||||0.11116 0.11513 -0.04784 0.09200 0.02712 0.08020 0.11095 0.07039 0.08782 -0.10050 0.06718 0.04383 -0.06187 -0.06887 0.07101 0.07266 0.11759 -0.00123 -0.10505 0.05704 -0.01773 0.02999 -0.05297 0.10163 0.05074 -0.02151 0.08530 -0.05819 0.11042 0.00283 0.08884 0.02647 -0.08777 -0.01840 -0.07459 -0.04944 -0.07664 -0.09627 -0.05306 0.07787 0.10215 0.00268 -0.08339 0.11581 0.06574 -0.04234 -0.10492 -0.02525 0.09036 -0.02855 -0.00303 0.10452 -0.05011 -0.08158 0.07042 -0.03316 0.08504 0.08841 0.04874 -0.04129 0.03899 0.08937 0.00559 -0.10790 -0.08480 -0.05335 0.00937 -0.05983 -0.01676 -0.00450 0.05973 0.02499 0.22250|||||||||||||||||||||||||||||||||||||||||||||||||||||||||||||||||0.02626 0.04136 -0.05777 -0.00440 -0.03775 -0.08925 -0.08664 -0.03395 0.01130 0.11474 0.01093 0.03386 0.08169 0.11732 -0.09697 -0.09771 -0.05145 0.09662 0.05904 0.10104 0.03834 0.06929 -0.09971 -0.04069 0.09427 -0.00690 0.05573 -0.04771 0.11326 0.10217 -0.05646 0.00646 0.07800 0.00008 -0.02426 0.03387 -0.04541 0.07095 -0.05404 0.06491 0.02201 0.06997 0.01752 0.05580 -0.06682 0.05416 0.10966 0.07374 -0.02978 -0.10158 0.00229 -0.08690 0.00010 0.07541 -0.03640 -0.09805 0.08121 0.06000 -0.09799 0.04623 0.07402 -0.03974 -0.09776 0.06424 -0.02512 0.05880 -0.10151 -0.09196 0.06629 -0.03328 -0.08952 -0.00733 0.94225|||||||||||||||||||||||||||||||||||||||||||||||||||||||||||||||||0.00854 0.04278 -0.01910 0.00738 -0.04866 -0.05727 0.11357 0.07448 0.02974 0.11359 -0.06758 -0.05082 -0.08970 0.10113 -0.01363 -0.10409 -0.09265 0.03479 0.01753 -0.07131 -0.11319 0.09709 0.03658 -0.08851 -0.05642 0.09259 -0.04296 0.04365 -0.01503 0.04908 0.07802 0.01360 -0.01347 0.00656 0.09853 -0.06693 0.04726 -0.01968 0.03342 0.06745 0.03480 -0.01493 -0.08915 0.02748 -0.04440 -0.07701 -0.09019 -0.05447 -0.00263 -0.07625 0.06885 -0.09521 0.09961 -0.02075 0.03250 0.11280 -0.06160 0.09219 0.02670 -0.09958 0.01332 0.01540 -0.07680 0.08014 -0.03906 0.06520 -0.07952 0.00067 0.02768 -0.05447 0.10395 0.07967 0.65600|||||||||||||||||||||||||||||||||||||||||||||||||||||||||||||||||-0.08043 -0.02408 -0.02231 0.09988 0.11534 -0.06052 -0.00315 -0.05136 0.03634 -0.01730 -0.10090 -0.03331 -0.08209 -0.05523 -0.02746 0.02424 -0.07223 -0.08452 -0.10527 -0.07127 0.07049 -0.02996 0.08136 0.07298 -0.05235 0.05277 -0.06806 -0.02643 -0.07450 0.08818 0.06654 -0.06912 0.00526 -0.03170 -0.11216 0.01506 -0.05652 -0.03013 0.02240 0.03201 0.04657 -0.00662 -0.11216 -0.03327 0.06276 0.07101 0.11663 0.00581 -0.00030 -0.01444 -0.04911 -0.06374 -0.09783 -0.10209 -0.10472 0.10654 0.08851 -0.10846 0.09419 -0.01758 0.11385 -0.09088 0.04409 -0.11352 0.05398 0.02357 -0.03900 0.06903 -0.00014 0.01938 0.02546 0.03981 0.78875|||||||||||||||||||||||||||||||||||||||||||||||||||||||||||||||||0.03363 0.02703 0.09570 0.01637 -0.04998 0.06560 0.05986 -0.04103 0.08211 -0.07746 -0.00277 0.06093 0.09218 0.03956 0.00465 0.00093 0.03217 -0.01788 -0.06379 -0.00769 0.08786 -0.11483 -0.11130 -0.11109 0.07760 -0.02134 -0.01111 -0.07146 0.00314 -0.06682 0.06380 -0.07712 0.02130 -0.08951 0.05688 -0.04091 -0.07642 -0.02644 -0.01596 -0.03027 -0.02278 -0.00578 -0.07164 0.00369 -0.06088 0.04107 0.11564 0.04722 0.06382 0.10019 -0.03771 -0.04652 -0.10161 -0.02557 0.09387 -0.00710 -0.11212 0.06736 0.07735 0.10878 0.02416 -0.03156 0.09278 -0.00547 0.06317 -0.11484 0.01472 -0.02936 -0.01740 0.08143 0.00314 0.10280 0.32059|||||||||||||||||||||||||||||||||||||||||||||||||||||||||||||||||0.03614 -0.04613 -0.08783 0.01653 0.10463 0.03212 -0.08710 -0.03316 -0.02707 0.03938 -0.03096 0.01222 0.02687 -0.02249 -0.05206 -0.09108 -0.03483 0.05387 0.06222 0.07079 0.10882 0.02046 0.08445 -0.00773 0.07593 0.09234 -0.02633 0.04043 0.05429 -0.03433 0.01647 -0.02087 0.00941 0.04076 0.10229 0.00403 0.06541 -0.00149 -0.07289 0.09682 -0.01566 -0.09437 -0.07130 0.07122 -0.02253 -0.04552 0.02793 -0.04695 -0.07291 0.04024 0.11482 0.06001 -0.09071 -0.08038 -0.03152 -0.06084 0.06232 -0.01074 0.03210 -0.01725 0.08456 0.03224 -0.07811 -0.00604 -0.06281 -0.05444 -0.03434 0.07350 -0.11781 0.11132 -0.00117 -0.10573 0.63286|||||||||||||||||||||||||||||||||||||||||||||||||||||||||||||||||0.00893 -0.09587 0.07382 -0.06904 -0.00668 0.04698 -0.09406 0.01891 -0.08783 0.10227 -0.10951 -0.04631 -0.00104 0.10208 -0.06061 -0.10240 -0.01428 0.03887 -0.07949 0.10976 -0.00153 -0.06636 -0.01987 -0.02779 0.01455 -0.09328 0.11525 -0.07134 0.07901 0.09881 -0.07075 0.02603 0.01022 -0.10530 0.05167 0.07345 0.03851 -0.01575 0.11763 0.04687 -0.11431 0.11107 -0.05562 0.09266 -0.08408 0.10610 -0.10402 0.08283 0.04886 -0.05891 0.07610 0.07137 -0.08554 0.01788 0.08287 0.10075 0.01177 0.06127 -0.00286 0.03772 -0.10939 0.03955 0.01914 -0.01685 0.09873 -0.10273 -0.10854 0.02415 0.06831 -0.04886 -0.11623 0.02074 0.92574|||||||||||||||||||||||||||||||||||||||||||||||||||||||||||||||||0.10786 0.09728 -0.08419 0.04495 -0.09867 0.08011 0.00719 0.03165 0.01280 -0.06386 0.04938 -0.07656 0.09034 0.00755 -0.11096 -0.09078 -0.08618 0.03656 0.06414 -0.10349 0.03379 0.04863 0.04525 -0.01720 -0.11464 -0.03504 0.05900 -0.01117 0.08692 -0.06628 -0.04221 -0.10064 0.04614 0.02211 -0.09585 0.10887 0.04538 -0.04253 0.09386 -0.01530 0.02959 0.07843 0.09143 0.11195 -0.11209 0.08835 0.05575 -0.00192 -0.10595 0.04435 0.08300 -0.03837 -0.01793 0.06790 -0.05490 0.09065 -0.06671 0.01155 0.02295 -0.08969 -0.08313 -0.06813 0.05564 -0.08974 0.02439 0.08880 -0.05014 0.09625 0.00179 -0.08146 -0.02868 0.03359 0.74297|||||||||||||||||||||||||||||||||||||||||||||||||||||||||||||||||0.02465 -0.09806 -0.06864 -0.04569 -0.05129 0.09521 -0.08015 -0.08744 -0.08618 -0.07041 0.08373 0.05876 -0.10100 -0.09193 -0.03843 0.01803 0.11557 -0.06680 0.04116 0.06699 0.07353 0.05747 -0.10448 0.11385 -0.06407 0.07164 0.06274 0.05145 0.02179 0.07839 -0.03962 0.09934 0.01268 0.03556 -0.00425 0.04117 0.05105 -0.08083 0.01123 0.03311 0.01384 -0.02810 -0.01300 -0.03226 -0.02381 0.11602 -0.10312 0.02840 0.03502 -0.00393 -0.08434 0.06819 0.01460 0.01078 -0.04464 0.04316 0.00711 0.01365 0.07640 0.02540 -0.07369 -0.11717 0.01919 -0.00144 0.03361 -0.00602 -0.04609 0.04911 0.04973 -0.03660 0.00329 -0.03068 0.98452|||||||||||||||||||||||||||||||||||||||||||||||||||||||||||||||||0.01603 -0.07276 0.03348 -0.11252 -0.07498 0.00259 0.04064 0.01062 -0.05332 -0.06876 0.09290 0.11425 0.03423 -0.04030 -0.03770 -0.10373 -0.11589 -0.11608 -0.03059 -0.11592 -0.01271 -0.07002 -0.08803 -0.07333 0.07372 -0.05809 0.05210 -0.02914 0.07315 0.01214 0.10561 -0.09345 -0.06846 0.10227 0.09314 0.01820 0.09440 0.11351 -0.03699 -0.00700 0.01169 0.07463 -0.06186 -0.07563 0.01339 -0.02864 -0.03126 -0.01091 0.03811 -0.10585 0.11486 -0.03897 0.00810 0.10901 -0.01844 -0.00837 0.11355 0.04907 -0.08781 0.02467 0.02605 0.04498 -0.07024 0.07153 0.03740 -0.09958 0.05826 -0.00799 0.06416 0.10880 0.04537 0.01287 0.46060|||||||||||||||||||||||||||||||||||||||||||||||||||||||||||||||||-0.03634 -0.04259 -0.11293 -0.09159 0.03973 -0.07919 0.06297 -0.03576 -0.05380 -0.11481 -0.05919 -0.06937 0.10394 -0.05721 0.09464 -0.02214 -0.05298 0.07487 0.07779 -0.01546 -0.06850 -0.02794 0.06547 0.11667 -0.00688 0.09858 -0.08055 -0.01287 0.04948 -0.06992 0.04397 -0.04398 0.06580 0.11182 -0.09764 -0.04038 -0.11279 -0.07908 0.01483 0.01784 -0.01580 -0.04483 0.06473 -0.07634 -0.00437 0.07555 -0.11180 0.03858 0.02515 0.07753 -0.04529 -0.04082 -0.05853 -0.00256 0.08675 -0.11022 0.00946 -0.10690 -0.11180 -0.03774 -0.08425 0.02420 0.06726 0.04621 0.01884 0.10349 -0.01626 0.06243 0.06501 -0.09875 -0.02819 0.02629 0.59927|||||||||||||||||||||||||||||||||||||||||||||||||||||||||||||||||-0.06813 -0.11759 -0.08802 0.09017 -0.08726 -0.04982 -0.08793 -0.01451 -0.02873 -0.09150 -0.01892 -0.03064 -0.10352 -0.09808 0.00662 -0.09826 -0.02487 -0.08328 0.09372 -0.05737 -0.02625 -0.00426 -0.07181 0.07575 -0.09455 0.06447 -0.10617 0.02331 0.04495 0.05588 0.00865 -0.07819 -0.01160 -0.07164 0.09595 0.08996 -0.01689 0.06698 0.00102 -0.01013 0.03582 0.08933 -0.01361 0.09097 -0.06741 -0.04633 0.00017 0.06094 0.08019 0.03712 0.05075 -0.07615 -0.02586 0.03378 -0.10021 -0.10779 0.01186 0.10147 0.11207 -0.05937 0.08492 -0.03706 0.10232 0.09926 -0.00947 0.00960 0.10082 -0.07664 0.08718 -0.06490 0.01941 0.03205 0.08272|||||||||||||||||||||||||||||||||||||||||||||||||||||||||||||||||-0.04562 -0.06125 0.00973 -0.06795 -0.09626 0.01226 0.05811 -0.10461 -0.06524 -0.08978 0.02909 -0.01353 0.08881 -0.07214 -0.06266 0.00700 0.05568 -0.03149 0.10699 -0.05810 0.09765 -0.05194 0.08831 -0.11408 0.01710 -0.07021 -0.03662 -0.11731 -0.06793 0.10577 -0.11503 0.06695 -0.01549 0.02268 0.01261 0.10552 0.06282 0.08978 0.07273 -0.11299 -0.07207 0.02571 -0.04851 0.02517 -0.01685 0.03641 -0.10690 -0.01324 0.11035 0.05318 0.07783 0.08664 -0.11482 0.03150 0.02923 0.00529 0.07209 0.10491 0.03729 -0.08393 0.06728 0.08619 -0.05949 -0.07010 0.10014 -0.11447 -0.08287 -0.05421 0.06256 0.01878 -0.00395 -0.04893 0.90399|||||||||||||||||||||||||||||||||||||||||||||||||||||||||||||||||-0.02399 -0.06404 -0.01808 -0.10685 -0.05496 -0.06104 -0.02546 -0.10604 -0.02445 -0.02367 -0.03674 -0.10185 -0.07937 -0.08336 0.00858 -0.06324 0.04039 0.00923 0.07054 -0.00082 -0.09063 -0.06390 0.00882 0.09471 -0.06815 -0.10232 -0.07460 -0.02786 -0.02648 0.07200 -0.10563 0.09854 -0.04023 -0.01635 0.00553 0.10488 -0.00699 -0.00526 0.11456 0.01748 -0.05333 -0.08979 -0.03662 -0.04975 0.05897 -0.11343 0.03894 -0.11242 0.07153 -0.09840 -0.09746 -0.02744 -0.07260 0.04190 -0.06114 -0.00468 0.09404 0.11612 0.00547 -0.04199 0.06379 0.09765 -0.10274 0.07593 -0.08819 -0.06480 0.05261 0.08823 -0.02448 0.00416 0.01568 0.03496 0.19254|||||||||||||||||||||||||||||||||||||||||||||||||||||||||||||||||0.05555 0.05109 -0.02121 0.05466 -0.10916 0.08476 0.03800 0.05438 -0.07851 -0.07287 0.08452 -0.10233 -0.10965 -0.08544 0.08343 0.00170 -0.04601 -0.04752 -0.06558 0.02263 -0.09863 -0.00746 -0.11605 0.02956 -0.02749 0.03015 0.08931 -0.11354 0.11357 0.07202 -0.03257 -0.10070 0.09797 0.09326 0.00589 -0.08811 0.03370 -0.09356 0.02974 -0.02551 0.04427 -0.06486 -0.09426 -0.07669 0.07844 0.02257 0.07413 0.00010 0.08054 -0.09539 0.11677 -0.02879 0.00844 0.06150 -0.05032 0.03840 0.07097 0.00338 -0.06909 0.09681 -0.06679 0.01371 -0.09321 0.06484 0.00071 0.03153 0.10978 0.08489 -0.04602 -0.05699 0.04542 0.07174 0.95623|||||||||||||||||||||||||||||||||||||||||||||||||||||||||||||||||-0.01021 -0.08805 0.02371 0.04800 0.10195 -0.05970 -0.03798 0.05195 0.07703 -0.03192 0.07340 -0.10108 0.02096 0.07157 0.11036 -0.08473 -0.02530 0.09221 -0.08004 0.06666 0.07032 -0.03112 0.04692 0.09039 0.06320 0.11164 0.01745 -0.08742 0.03847 0.01598 -0.07977 -0.08926 -0.05456 0.03085 0.01566 -0.00833 -0.07731 -0.00404 0.04589 0.03785 -0.08917 -0.04345 0.05900 -0.01560 0.06125 0.05576 -0.09993 0.02817 0.08618 0.11600 -0.05042 -0.07646 0.02239 -0.08841 0.03366 -0.03880 0.08437 0.11071 -0.08551 -0.00757 -0.10025 0.08391 -0.11179 -0.07867 -0.06061 -0.00100 -0.04224 -0.08129 -0.10753 -0.06325 -0.10265 0.06438 0.73516|||||||||||||||||||||||||||||||||||||||||||||||||||||||||||||||||-0.11182 -0.07819 -0.00077 0.02892 0.06434 0.01748 -0.06112 -0.01585 -0.09058 0.02459 0.11594 -0.07181 -0.00163 -0.04583 -0.09532 -0.09374 -0.02640 -0.10118 -0.08394 -0.11386 -0.01436 -0.00870 0.02265 -0.03569 -0.04948 0.01934 0.10302 -0.08553 0.10927 0.00044 -0.02855 -0.01582 0.08873 0.04284 -0.07455 -0.02365 0.03107 -0.03837 -0.06133 0.06025 0.01926 -0.10218 -0.04148 -0.10423 -0.01958 0.01476 0.01653 0.09294 -0.06938 0.05628 -0.06646 0.09585 -0.05467 0.01477 -0.02492 0.02184 -0.04906 0.07424 -0.01438 -0.02987 0.10426 0.09509 -0.07237 -0.03298 -0.11251 0.10027 0.08752 -0.01524 0.09161 0.00777 0.00758 -0.00148 0.70164|||||||||||||||||||||||||||||||||||||||||||||||||||||||||||||||||0.08604 -0.02237 0.07045 0.00765 -0.07188 -0.10997 0.10708 0.04653 -0.04945 -0.08907 0.04671 0.02129 0.01403 -0.00580 -0.06129 0.00386 0.03750 -0.05697 0.00668 -0.07154 -0.01212 0.04876 -0.06518 -0.09712 -0.07037 0.09873 -0.05683 0.09062 -0.03121 0.00865 0.10371 0.00195 -0.01213 -0.09524 -0.06871 0.04189 -0.11711 0.09873 -0.03471 0.06493 -0.08111 -0.07526 0.08130 0.05795 -0.01063 -0.00328 -0.08565 0.10245 0.05279 0.10664 -0.07626 -0.11686 -0.07888 0.11679 0.01267 -0.03375 0.10761 0.04784 -0.04149 0.00408 -0.11071 -0.10950 -0.03661 0.00347 0.10989 0.00412 0.05784 0.07392 -0.11301 0.05983 -0.02835 0.05290 0.33640|||||||||||||||||||||||||||||||||||||||||||||||||||||||||||||||||0.00809 0.01789 -0.11313 -0.01311 0.00978 -0.06412 0.00807 0.08123 0.10897 0.01318 0.01426 0.08256 0.00150 0.09535 -0.07930 0.10225 -0.08728 0.04502 0.10190 -0.07318 0.09389 0.02331 -0.02458 -0.01616 0.03450 -0.05444 0.05323 -0.11537 0.10479 0.09632 -0.02347 0.08941 0.11552 0.02841 -0.01328 -0.04359 -0.00257 0.03516 -0.07231 -0.11249 0.01727 0.03133 0.02003 0.08033 -0.08553 0.05794 -0.08980 0.00820 0.08746 -0.00557 -0.09716 -0.11549 0.07290 -0.00682 -0.04148 0.03652 0.02022 -0.02369 -0.11769 -0.06448 0.05630 0.09076 0.03569 0.10361 0.11377 0.10078 -0.05532 0.03903 0.06303 -0.01938 0.07420 0.02237 0.20700
