0.10580 -0.12499 -0.03684 -0.12714 -0.12691 -0.06317 0.02800 0.10592 -0.00627 -0.04997 0.00090 -0.06656 -0.02696 0.05143 0.03380 -0.07605 0.09529 0.07764 -0.01948 0.11262 0.07741 -0.09678 -0.01093 -0.10568 -0.13185 -0.05994 0.05348 -0.01259 0.10330 0.11967 -0.07579 0.10407 -0.12364 -0.06441 0.00795 0.11637 0.06753 0.00044 -0.12705 0.04674 -0.09712 0.01025 -0.08155 -0.09042 -0.08943 -0.07792 -0.12492 0.02106 -0.00984 0.00296 0.87405|||||||||||||||||||||||||||||||||||||||||||||||||||||||||||||||||-0.04645 0.11016 0.12666 -0.09633 0.02557 -0.13969 0.14007 -0.11385 0.00633 -0.10186 0.01073 -0.11386 0.09154 0.08841 -0.09427 0.13208 -0.12643 -0.07796 -0.00055 -0.02969 -0.09256 -0.06719 -0.05394 0.11899 0.01764 0.10867 -0.08202 -0.05602 0.01018 -0.13357 -0.05859 0.02591 0.12250 0.06374 -0.03248 -0.10335 -0.12889 -0.07063 -0.11156 0.01729 0.10139 0.00406 -0.14042 0.04407 -0.00212 0.11149 -0.07724 -0.05911 0.03335 -0.05668 0.05810|||||||||||||||||||||||||||||||||||||||||||||||||||||||||||||||||-0.13733 0.07252 -0.13054 -0.01769 -0.07988 0.06906 0.12908 -0.07850 0.07757 -0.01250 0.13062 0.06928 0.13913 0.13046 -0.06183 -0.13476 -0.11486 -0.09395 -0.05089 -0.06434 0.06789 0.07410 0.03011 -0.08529 -0.03379 -0.02366 -0.07807 0.10517 0.05745 0.09001 0.12101 0.13790 0.00784 -0.11874 -0.12277 0.01356 0.02820 0.13347 -0.01586 -0.03914 -0.12991 0.10647 0.12169 0.09420 0.09082 -0.11413 0.11537 0.08629 -0.06356 -0.11988 0.36975|||||||||||||||||||||||||||||||||||||||||||||||||||||||||||||||||0.04814 -0.04099 0.02487 0.08477 -0.03627 -0.13380 -0.07673 0.12962 -0.03634 0.04798 -0.10057 0.13703 0.07878 -0.02471 -0.02402 -0.11727 0.08901 -0.09649 -0.10179 -0.08911 -0.10871 -0.05973 0.11104 -0.07243 0.02894 -0.03253 -0.09219 0.08677 0.09240 -0.04141 -0.08835 -0.06627 0.00009 -0.13196 0.04916 0.12540 -0.08231 -0.10887 0.04670 0.13592 0.06597 -0.01673 0.09383 -0.06817 -0.07185 0.07124 0.13686 0.05270 -0.07617 -0.01807 0.05048|||||||||||||||||||||||||||||||||||||||||||||||||||||||||||||||||0.11947 -0.11282 0.13531 0.11927 0.10989 -0.02700 0.10034 0.01540 -0.10581 -0.02025 0.08993 -0.10928 -0.05850 -0.03084 0.12343 0.05759 -0.09822 0.00553 -0.09429 0.04616 -0.11271 -0.10511 0.12110 0.05770 -0.06717 -0.13732 -0.05362 0.13319 -0.04090 -0.08548 0.00855 0.03383 0.05116 -0.02877 0.01009 -0.12048 0.13365 -0.11049 -0.11397 0.13299 0.08220 0.05358 0.12683 -0.14088 0.10721 0.02966 0.00359 -0.10529 0.14042 -0.07595 0.05131|||||||||||||||||||||||||||||||||||||||||||||||||||||||||||||||||-0.01656 -0.13776 -0.04783 -0.13211 0.11481 -0.05578 -0.02255 0.02266 -0.03224 0.08895 -0.01923 0.06941 -0.01205 -0.09738 0.03896 -0.10508 -0.09470 -0.05904 0.00337 -0.04765 -0.08742 -0.13436 0.00653 0.12309 -0.07870 -0.11638 0.08414 0.11179 0.08432 0.13003 0.02666 0.06514 0.02401 0.01158 0.07517 0.08056 -0.09554 0.00712 0.07369 -0.02626 0.11563 0.05126 0.02756 0.07510 0.07899 0.07514 -0.09437 -0.13768 0.07924 0.08217 0.27667
